Language model created by QuickLM on Sun Nov  6 08:16:14 EST 2016
Copyright (c) 1996-2010 Carnegie Mellon University and Alexander I. Rudnicky

The model is in standard ARPA format, designed by Doug Paul while he was at MITRE.

The code that was used to produce this language model is available in Open Source.
Please visit http://www.speech.cs.cmu.edu/tools/ for more information

The (fixed) discount mass is 0.5. The backoffs are computed using the ratio method.
This model based on a corpus of 22 sentences and 35 words

\data\
ngram 1=35
ngram 2=57
ngram 3=42

\1-grams:
-2.2455 1 -0.2986
-2.2455 10 -0.2430
-0.9031 </s> -0.3010
-0.9031 <s> -0.2430
-1.6435 A -0.2885
-2.2455 AS -0.2430
-2.2455 BACKWARD -0.2430
-2.2455 CLASS -0.2430
-1.7684 CREATE -0.2885
-1.9445 DEFINE -0.2910
-2.2455 DOUBLE -0.2430
-1.9445 FOR -0.2402
-2.2455 FORWARD -0.2430
-2.2455 FROM -0.2986
-2.2455 HELLO -0.2430
-2.2455 I -0.2986
-2.2455 INDENT -0.2430
-2.2455 INT -0.2961
-2.2455 LINE -0.2430
-2.2455 MAIN -0.2961
-1.9445 METHOD -0.2430
-2.2455 NEW -0.2430
-1.9445 NEXT -0.2402
-2.2455 OPEN -0.2430
-2.2455 PRINT -0.2986
-2.2455 PRIVATE -0.2430
-2.2455 PUBLIC -0.2430
-1.9445 SAVE -0.2402
-2.2455 STRING -0.2430
-2.2455 TO -0.2986
-2.2455 VALUE -0.2961
-2.2455 VARIABLE -0.2430
-2.2455 WHILE -0.2430
-2.2455 WITH -0.2986
-1.9445 X -0.2402

\2-grams:
-0.3010 1 TO 0.0000
-0.3010 10 </s> -0.3010
-1.6435 <s> BACKWARD 0.0000
-1.1663 <s> CREATE 0.0000
-1.3424 <s> DEFINE 0.0000
-1.6435 <s> DOUBLE 0.0000
-1.3424 <s> FOR 0.0000
-1.6435 <s> FORWARD 0.0000
-1.6435 <s> INDENT 0.0000
-1.6435 <s> NEW 0.0000
-1.3424 <s> NEXT 0.0000
-1.6435 <s> OPEN 0.0000
-1.6435 <s> PRINT 0.0000
-1.6435 <s> PRIVATE 0.0000
-1.6435 <s> PUBLIC 0.0000
-1.3424 <s> SAVE 0.0000
-1.6435 <s> STRING 0.0000
-1.6435 <s> WHILE 0.0000
-0.9031 A CLASS 0.0000
-0.9031 A INT 0.0000
-0.9031 A METHOD 0.0000
-0.9031 A VARIABLE 0.0000
-0.3010 AS </s> -0.3010
-0.3010 BACKWARD </s> -0.3010
-0.3010 CLASS </s> -0.3010
-0.4771 CREATE A -0.1761
-0.7782 CREATE MAIN 0.0000
-0.3010 DEFINE A -0.1761
-0.3010 DOUBLE </s> -0.3010
-0.6021 FOR </s> -0.3010
-0.6021 FOR I 0.0000
-0.3010 FORWARD </s> -0.3010
-0.3010 FROM 1 0.0000
-0.3010 HELLO </s> -0.3010
-0.3010 I FROM 0.0000
-0.3010 INDENT </s> -0.3010
-0.3010 INT X -0.1761
-0.3010 LINE </s> -0.3010
-0.3010 MAIN METHOD 0.0000
-0.3010 METHOD </s> -0.3010
-0.3010 NEW </s> -0.3010
-0.6021 NEXT </s> -0.3010
-0.6021 NEXT LINE 0.0000
-0.3010 OPEN </s> -0.3010
-0.3010 PRINT HELLO 0.0000
-0.3010 PRIVATE </s> -0.3010
-0.3010 PUBLIC </s> -0.3010
-0.6021 SAVE </s> -0.3010
-0.6021 SAVE AS 0.0000
-0.3010 STRING </s> -0.3010
-0.3010 TO 10 0.0000
-0.3010 VALUE X -0.1761
-0.3010 VARIABLE </s> -0.3010
-0.3010 WHILE </s> -0.3010
-0.3010 WITH VALUE 0.0000
-0.6021 X </s> -0.3010
-0.6021 X WITH 0.0000

\3-grams:
-0.3010 1 TO 10
-0.3010 <s> BACKWARD </s>
-0.4771 <s> CREATE A
-0.7782 <s> CREATE MAIN
-0.3010 <s> DEFINE A
-0.3010 <s> DOUBLE </s>
-0.6021 <s> FOR </s>
-0.6021 <s> FOR I
-0.3010 <s> FORWARD </s>
-0.3010 <s> INDENT </s>
-0.3010 <s> NEW </s>
-0.6021 <s> NEXT </s>
-0.6021 <s> NEXT LINE
-0.3010 <s> OPEN </s>
-0.3010 <s> PRINT HELLO
-0.3010 <s> PRIVATE </s>
-0.3010 <s> PUBLIC </s>
-0.6021 <s> SAVE </s>
-0.6021 <s> SAVE AS
-0.3010 <s> STRING </s>
-0.3010 <s> WHILE </s>
-0.3010 A CLASS </s>
-0.3010 A INT X
-0.3010 A METHOD </s>
-0.3010 A VARIABLE </s>
-0.6021 CREATE A CLASS
-0.6021 CREATE A METHOD
-0.3010 CREATE MAIN METHOD
-0.6021 DEFINE A INT
-0.6021 DEFINE A VARIABLE
-0.3010 FOR I FROM
-0.3010 FROM 1 TO
-0.3010 I FROM 1
-0.3010 INT X WITH
-0.3010 MAIN METHOD </s>
-0.3010 NEXT LINE </s>
-0.3010 PRINT HELLO </s>
-0.3010 SAVE AS </s>
-0.3010 TO 10 </s>
-0.3010 VALUE X </s>
-0.3010 WITH VALUE X
-0.3010 X WITH VALUE

\end\
